{
    "layers": [
        {
            "biases": [
                [
                    -0.0007476894312553363,
                    -0.006453987533986841,
                    0.00637302972792037,
                    0.0010111085287227081,
                    -0.005967931656569739
                ]
            ],
            "type": "DenseLayer<double>",
            "weights": [
                [
                    -0.007958723361354985,
                    0.008572400529052395,
                    -0.0070475775961700085,
                    0.0035535776520895165,
                    -0.004313476420746095
                ],
                [
                    -0.009962005172223494,
                    0.009871532721119425,
                    -0.0004117766773463049,
                    0.004693026686516258,
                    -0.0030887820939843273
                ],
                [
                    -0.006401172016551597,
                    -0.007812404263872841,
                    -0.008233440166600381,
                    0.006801536444263732,
                    -0.004532675247751062
                ]
            ]
        },
        {
            "type": "ReLU"
        },
        {
            "biases": [
                [
                    1.4999318381342999,
                    1.99987142321809,
                    0.4999706395759512,
                    0.9999652066018111
                ]
            ],
            "type": "DenseLayer<double>",
            "weights": [
                [
                    -0.006854582046131053,
                    0.007709379898977483,
                    0.00948330167930824,
                    -0.003784860698768837
                ],
                [
                    0.006392356540297411,
                    -0.007169398547095472,
                    0.00958560350913199,
                    0.001072914967363621
                ],
                [
                    -0.006961021155041454,
                    0.010868665207961566,
                    -0.004382093642801521,
                    0.0048002049130539005
                ],
                [
                    0.003575337130197634,
                    0.01312510211836549,
                    0.005228478338223733,
                    -0.006957220306255819
                ],
                [
                    -0.005923130718002047,
                    0.0042513432207236315,
                    -0.003070219776827923,
                    0.004345361789253599
                ]
            ]
        }
    ]
}