{
    "layers": [
        {
            "biases": [
                [
                    -5.004561525959926,
                    -0.0024913041922534204,
                    -5.00780708804524,
                    0.005318597230404761,
                    0.0016560770338605365
                ]
            ],
            "type": "DenseLayer",
            "weights": [
                [
                    -2.4934074034149765,
                    0.0004747467443385108,
                    -2.502522789370977,
                    -0.006523014745031617,
                    0.007338461126436368
                ],
                [
                    2.490550206087707,
                    0.0005817666791229237,
                    2.5031533435391937,
                    -0.0025298562922663236,
                    0.0024095752523630113
                ],
                [
                    -1.2495872054549484,
                    0.0045254834366917265,
                    -1.259725269452077,
                    -0.005328730036673774,
                    0.008626560067464763
                ]
            ]
        },
        {
            "type": "ReLU"
        },
        {
            "biases": [
                [
                    1.4998657323613003,
                    1.9997761160140903,
                    0.499961735470665,
                    0.9999245408803292
                ]
            ],
            "type": "DenseLayer",
            "weights": [
                [
                    -0.005000288235348339,
                    -0.0017690552778832007,
                    -0.004953968116606048,
                    0.0006389382469553886
                ],
                [
                    0.0032800370794073656,
                    0.009018837758810338,
                    0.004961180637889442,
                    -0.008445424719495009
                ],
                [
                    -0.002310327741243519,
                    -0.006984040508415798,
                    -0.0018077982691564725,
                    -0.002906633286501389
                ],
                [
                    0.010470601725043641,
                    0.0072738364681917056,
                    -0.00031154213368730227,
                    -0.001644282286207821
                ],
                [
                    0.007295109520493025,
                    0.019049570700856923,
                    0.002598624985371101,
                    0.005449736224049632
                ]
            ]
        }
    ]
}