{
    "layers": [
        {
            "biases": [
                [
                    -4.995893989633894,
                    -0.006271534129629426,
                    -4.999460474875806,
                    -4.993248991547017,
                    0.009517172534750018
                ]
            ],
            "type": "DenseLayer<double>",
            "weights": [
                [
                    -2.5043890638176087,
                    -0.0017453298655715557,
                    -2.4908538777078633,
                    -2.4914503901977825,
                    0.007587836169493935
                ],
                [
                    2.495284130074512,
                    0.001558234656489214,
                    2.49640527192259,
                    2.506087162438057,
                    0.008168264341811194
                ],
                [
                    -1.2526239221372437,
                    -0.002128856675565045,
                    -1.245947259275317,
                    -1.2427194442523766,
                    -0.006329240700556463
                ]
            ]
        },
        {
            "type": "ReLU"
        },
        {
            "biases": [
                [
                    1.499823567929251,
                    1.9997820253315066,
                    0.5000127269654412,
                    0.9998449685781411
                ]
            ],
            "type": "DenseLayer<double>",
            "weights": [
                [
                    0.0015694747971815523,
                    -0.005871901158145968,
                    0.004638208607960848,
                    -0.0027261455751641205
                ],
                [
                    0.009143538445773201,
                    0.0005279917233381327,
                    0.0005188617809128368,
                    0.0037991979191098375
                ],
                [
                    -0.000721291915081157,
                    -0.0026511871517259614,
                    0.009505610217775448,
                    -0.0008078077372311905
                ],
                [
                    -0.002260126090371628,
                    -0.005946688288973417,
                    -0.0005484250145555294,
                    -0.009222158660249667
                ],
                [
                    0.0142239027874812,
                    0.016770080769987043,
                    -0.004644168270057576,
                    0.014373294219340573
                ]
            ]
        }
    ]
}