{
    "layers": [
        {
            "biases": [
                [
                    -0.001739967053159595,
                    -0.002174332751093794,
                    -9.998939033024861,
                    -10.005863202584724,
                    -0.006569048496076466
                ]
            ],
            "type": "DenseLayer<double>",
            "weights": [
                [
                    -0.00810346076390352,
                    -0.006719327850841818,
                    -5.001616369743052,
                    -5.007065831027259,
                    0.0022954936903579522
                ],
                [
                    0.0006880109723814993,
                    0.0013453276543728583,
                    -2.9901034363725274,
                    -2.993140973083152,
                    -0.0024278361518494853
                ]
            ]
        },
        {
            "type": "ReLU"
        },
        {
            "biases": [
                [
                    -0.5368655162396276,
                    1.5469572421396405,
                    -0.5423942034456222
                ]
            ],
            "type": "DenseLayer<double>",
            "weights": [
                [
                    0.005899344636590866,
                    0.001565084705572612,
                    -0.004562546900757304
                ],
                [
                    0.0072529452989893144,
                    0.00026267454314649226,
                    -0.009453258809022059
                ],
                [
                    -0.0032260124776671666,
                    -0.005773810820033963,
                    0.009810086869319399
                ],
                [
                    0.009502292370713974,
                    -0.004438131562821171,
                    -0.0026717645151375915
                ],
                [
                    0.007236630045464694,
                    0.004501299516860784,
                    -0.008482599149483612
                ]
            ]
        },
        {
            "type": "Softmax"
        }
    ]
}